digraph Tree {
node [shape=box, fontname="helvetica"] ;
edge [fontname="helvetica"] ;
0 [label="x[0] <= 0.313\ngini = 0.498\nsamples = 1097\nvalue = [585, 512]"] ;
1 [label="x[1] <= 7.02\ngini = 0.298\nsamples = 548\nvalue = [100, 448]"] ;
0 -> 1 [labeldistance=2.5, labelangle=45, headlabel="True"] ;
2 [label="x[0] <= -0.459\ngini = 0.105\nsamples = 448\nvalue = [25, 423]"] ;
1 -> 2 ;
3 [label="x[2] <= 6.854\ngini = 0.051\nsamples = 384\nvalue = [10, 374]"] ;
2 -> 3 ;
4 [label="gini = 0.0\nsamples = 278\nvalue = [0, 278]"] ;
3 -> 4 ;
5 [label="x[1] <= -4.8\ngini = 0.171\nsamples = 106\nvalue = [10, 96]"] ;
3 -> 5 ;
6 [label="gini = 0.0\nsamples = 96\nvalue = [0, 96]"] ;
5 -> 6 ;
7 [label="gini = 0.0\nsamples = 10\nvalue = [10, 0]"] ;
5 -> 7 ;
8 [label="x[2] <= 5.93\ngini = 0.359\nsamples = 64\nvalue = [15, 49]"] ;
2 -> 8 ;
9 [label="x[1] <= 5.454\ngini = 0.219\nsamples = 56\nvalue = [7, 49]"] ;
8 -> 9 ;
10 [label="x[2] <= 2.625\ngini = 0.039\nsamples = 50\nvalue = [1, 49]"] ;
9 -> 10 ;
11 [label="gini = 0.0\nsamples = 48\nvalue = [0, 48]"] ;
10 -> 11 ;
12 [label="x[2] <= 3.945\ngini = 0.5\nsamples = 2\nvalue = [1, 1]"] ;
10 -> 12 ;
13 [label="gini = 0.0\nsamples = 1\nvalue = [1, 0]"] ;
12 -> 13 ;
14 [label="gini = 0.0\nsamples = 1\nvalue = [0, 1]"] ;
12 -> 14 ;
15 [label="gini = 0.0\nsamples = 6\nvalue = [6, 0]"] ;
9 -> 15 ;
16 [label="gini = 0.0\nsamples = 8\nvalue = [8, 0]"] ;
8 -> 16 ;
17 [label="x[0] <= -3.445\ngini = 0.375\nsamples = 100\nvalue = [75, 25]"] ;
1 -> 17 ;
18 [label="x[3] <= -1.916\ngini = 0.074\nsamples = 26\nvalue = [1, 25]"] ;
17 -> 18 ;
19 [label="gini = 0.0\nsamples = 25\nvalue = [0, 25]"] ;
18 -> 19 ;
20 [label="gini = 0.0\nsamples = 1\nvalue = [1, 0]"] ;
18 -> 20 ;
21 [label="gini = 0.0\nsamples = 74\nvalue = [74, 0]"] ;
17 -> 21 ;
22 [label="x[2] <= -4.443\ngini = 0.206\nsamples = 549\nvalue = [485.0, 64.0]"] ;
0 -> 22 [labeldistance=2.5, labelangle=-45, headlabel="False"] ;
23 [label="x[1] <= 7.027\ngini = 0.257\nsamples = 33\nvalue = [5, 28]"] ;
22 -> 23 ;
24 [label="gini = 0.0\nsamples = 28\nvalue = [0, 28]"] ;
23 -> 24 ;
25 [label="gini = 0.0\nsamples = 5\nvalue = [5, 0]"] ;
23 -> 25 ;
26 [label="x[0] <= 1.592\ngini = 0.13\nsamples = 516\nvalue = [480, 36]"] ;
22 -> 26 ;
27 [label="x[2] <= -2.243\ngini = 0.366\nsamples = 137\nvalue = [104, 33]"] ;
26 -> 27 ;
28 [label="x[1] <= 5.71\ngini = 0.18\nsamples = 20\nvalue = [2, 18]"] ;
27 -> 28 ;
29 [label="gini = 0.0\nsamples = 18\nvalue = [0, 18]"] ;
28 -> 29 ;
30 [label="gini = 0.0\nsamples = 2\nvalue = [2, 0]"] ;
28 -> 30 ;
31 [label="x[3] <= 0.082\ngini = 0.224\nsamples = 117\nvalue = [102.0, 15.0]"] ;
27 -> 31 ;
32 [label="x[2] <= -1.426\ngini = 0.021\nsamples = 93\nvalue = [92, 1]"] ;
31 -> 32 ;
33 [label="x[0] <= 0.477\ngini = 0.142\nsamples = 13\nvalue = [12, 1]"] ;
32 -> 33 ;
34 [label="gini = 0.0\nsamples = 1\nvalue = [0, 1]"] ;
33 -> 34 ;
35 [label="gini = 0.0\nsamples = 12\nvalue = [12, 0]"] ;
33 -> 35 ;
36 [label="gini = 0.0\nsamples = 80\nvalue = [80, 0]"] ;
32 -> 36 ;
37 [label="x[2] <= 1.853\ngini = 0.486\nsamples = 24\nvalue = [10, 14]"] ;
31 -> 37 ;
38 [label="gini = 0.0\nsamples = 14\nvalue = [0, 14]"] ;
37 -> 38 ;
39 [label="gini = 0.0\nsamples = 10\nvalue = [10, 0]"] ;
37 -> 39 ;
40 [label="x[0] <= 2.037\ngini = 0.016\nsamples = 379\nvalue = [376, 3]"] ;
26 -> 40 ;
41 [label="x[2] <= -2.648\ngini = 0.124\nsamples = 45\nvalue = [42, 3]"] ;
40 -> 41 ;
42 [label="x[3] <= -1.796\ngini = 0.375\nsamples = 4\nvalue = [1, 3]"] ;
41 -> 42 ;
43 [label="gini = 0.0\nsamples = 1\nvalue = [1, 0]"] ;
42 -> 43 ;
44 [label="gini = 0.0\nsamples = 3\nvalue = [0, 3]"] ;
42 -> 44 ;
45 [label="gini = 0.0\nsamples = 41\nvalue = [41, 0]"] ;
41 -> 45 ;
46 [label="gini = 0.0\nsamples = 334\nvalue = [334, 0]"] ;
40 -> 46 ;
}